<?xml version="1.0"?>
<opencv_storage>
<stage13>
  <maxWeakCount>22</maxWeakCount>
  <stageThreshold>-1.3032082319259644e+00</stageThreshold>
  <weakClassifiers>
    <_>
      <internalNodes>
        0 -1 198292 3.2610180787742138e-03</internalNodes>
      <leafValues>
        -5.0925290584564209e-01 1.7842324078083038e-01</leafValues></_>
    <_>
      <internalNodes>
        0 -1 497615 -2.8973323060199618e-04</internalNodes>
      <leafValues>
        -5.4843294620513916e-01 9.8160840570926666e-02</leafValues></_>
    <_>
      <internalNodes>
        0 -1 119844 -4.8142398009076715e-04</internalNodes>
      <leafValues>
        -3.7867552042007446e-01 1.5644766390323639e-01</leafValues></_>
    <_>
      <internalNodes>
        0 -1 120686 1.1963602446485311e-04</internalNodes>
      <leafValues>
        -1.4367164671421051e-01 4.2914196848869324e-01</leafValues></_>
    <_>
      <internalNodes>
        0 -1 381268 4.6717599034309387e-03</internalNodes>
      <leafValues>
        -2.3600427806377411e-01 2.6502624154090881e-01</leafValues></_>
    <_>
      <internalNodes>
        0 -1 509492 -1.0589642915874720e-03</internalNodes>
      <leafValues>
        -5.1494812965393066e-01 1.4028048515319824e-01</leafValues></_>
    <_>
      <internalNodes>
        0 -1 310041 -2.0976590458303690e-03</internalNodes>
      <leafValues>
        5.4931867122650146e-01 -1.2198859453201294e-01</leafValues></_>
    <_>
      <internalNodes>
        0 -1 31247 -1.2044232338666916e-02</internalNodes>
      <leafValues>
        6.5298467874526978e-01 -7.5686663389205933e-02</leafValues></_>
    <_>
      <internalNodes>
        0 -1 425061 -4.7795949503779411e-03</internalNodes>
      <leafValues>
        4.3353173136711121e-01 -1.1751433461904526e-01</leafValues></_>
    <_>
      <internalNodes>
        0 -1 292128 -1.0262492287438363e-04</internalNodes>
      <leafValues>
        2.8705143928527832e-01 -1.6494031250476837e-01</leafValues></_>
    <_>
      <internalNodes>
        0 -1 347632 -3.4604824031703174e-04</internalNodes>
      <leafValues>
        -4.2452728748321533e-01 1.2647755444049835e-01</leafValues></_>
    <_>
      <internalNodes>
        0 -1 19974 2.3259494453668594e-02</internalNodes>
      <leafValues>
        4.9225971102714539e-02 -8.7491649389266968e-01</leafValues></_>
    <_>
      <internalNodes>
        0 -1 31402 1.4324803487397730e-04</internalNodes>
      <leafValues>
        1.0416727513074875e-01 -4.5975658297538757e-01</leafValues></_>
    <_>
      <internalNodes>
        0 -1 246089 -1.2832484208047390e-03</internalNodes>
      <leafValues>
        2.6435759663581848e-01 -1.9738702476024628e-01</leafValues></_>
    <_>
      <internalNodes>
        0 -1 133527 -5.3217208915157244e-06</internalNodes>
      <leafValues>
        2.5077593326568604e-01 -2.0069052278995514e-01</leafValues></_>
    <_>
      <internalNodes>
        0 -1 361562 -7.4424642662052065e-05</internalNodes>
      <leafValues>
        2.3647044599056244e-01 -2.1241973340511322e-01</leafValues></_>
    <_>
      <internalNodes>
        0 -1 60665 2.3216116242110729e-03</internalNodes>
      <leafValues>
        -1.2214549630880356e-01 4.4109925627708435e-01</leafValues></_>
    <_>
      <internalNodes>
        0 -1 345485 -1.1371252126991749e-02</internalNodes>
      <leafValues>
        2.4141792953014374e-01 -2.1582329273223877e-01</leafValues></_>
    <_>
      <internalNodes>
        0 -1 92233 3.3046252792701125e-04</internalNodes>
      <leafValues>
        1.5684174001216888e-01 -3.2816457748413086e-01</leafValues></_>
    <_>
      <internalNodes>
        0 -1 224014 -9.4779487699270248e-04</internalNodes>
      <leafValues>
        3.2725960016250610e-01 -1.4868354797363281e-01</leafValues></_>
    <_>
      <internalNodes>
        0 -1 228180 1.1297237360849977e-03</internalNodes>
      <leafValues>
        -1.7937484383583069e-01 2.8983679413795471e-01</leafValues></_>
    <_>
      <internalNodes>
        0 -1 236877 -6.2992628663778305e-03</internalNodes>
      <leafValues>
        -5.0580275058746338e-01 1.2116478383541107e-01</leafValues></_></weakClassifiers></stage13>
</opencv_storage>
