<?xml version="1.0"?>
<opencv_storage>
<stage7>
  <maxWeakCount>19</maxWeakCount>
  <stageThreshold>-1.2852613925933838e+00</stageThreshold>
  <weakClassifiers>
    <_>
      <internalNodes>
        0 -1 496892 2.2287497296929359e-02</internalNodes>
      <leafValues>
        -5.4876273870468140e-01 1.6564416885375977e-01</leafValues></_>
    <_>
      <internalNodes>
        0 -1 329456 -2.8538703918457031e-04</internalNodes>
      <leafValues>
        -5.1768624782562256e-01 1.4300167560577393e-01</leafValues></_>
    <_>
      <internalNodes>
        0 -1 365480 9.7515076049603522e-05</internalNodes>
      <leafValues>
        1.5656222403049469e-01 -4.8396706581115723e-01</leafValues></_>
    <_>
      <internalNodes>
        0 -1 2149 -6.1303293332457542e-03</internalNodes>
      <leafValues>
        3.5189425945281982e-01 -2.0498070120811462e-01</leafValues></_>
    <_>
      <internalNodes>
        0 -1 222346 4.4302537571638823e-04</internalNodes>
      <leafValues>
        -1.7440967261791229e-01 4.1854363679885864e-01</leafValues></_>
    <_>
      <internalNodes>
        0 -1 31614 -3.4700502874329686e-04</internalNodes>
      <leafValues>
        -5.2254992723464966e-01 1.8227498233318329e-01</leafValues></_>
    <_>
      <internalNodes>
        0 -1 31614 3.9478958933614194e-04</internalNodes>
      <leafValues>
        1.8966265022754669e-01 -4.9895620346069336e-01</leafValues></_>
    <_>
      <internalNodes>
        0 -1 24358 -6.6120866686105728e-03</internalNodes>
      <leafValues>
        -4.5362013578414917e-01 1.3702447712421417e-01</leafValues></_>
    <_>
      <internalNodes>
        0 -1 21403 2.1530538797378540e-03</internalNodes>
      <leafValues>
        1.1811759322881699e-01 -6.1421734094619751e-01</leafValues></_>
    <_>
      <internalNodes>
        0 -1 474863 -1.1379936710000038e-02</internalNodes>
      <leafValues>
        3.7784004211425781e-01 -1.9126825034618378e-01</leafValues></_>
    <_>
      <internalNodes>
        0 -1 412230 9.3978438526391983e-03</internalNodes>
      <leafValues>
        -1.3911707699298859e-01 5.2510273456573486e-01</leafValues></_>
    <_>
      <internalNodes>
        0 -1 366768 -3.7087634205818176e-02</internalNodes>
      <leafValues>
        -6.9442254304885864e-01 1.0451509058475494e-01</leafValues></_>
    <_>
      <internalNodes>
        0 -1 17931 -6.9892928004264832e-03</internalNodes>
      <leafValues>
        -5.7752746343612671e-01 8.6875952780246735e-02</leafValues></_>
    <_>
      <internalNodes>
        0 -1 268082 -1.5832012286409736e-03</internalNodes>
      <leafValues>
        6.3451725244522095e-01 -1.1123388260602951e-01</leafValues></_>
    <_>
      <internalNodes>
        0 -1 137086 5.3884871304035187e-03</internalNodes>
      <leafValues>
        -1.6408708691596985e-01 3.5375735163688660e-01</leafValues></_>
    <_>
      <internalNodes>
        0 -1 148844 -1.3011341914534569e-02</internalNodes>
      <leafValues>
        4.0458068251609802e-01 -1.6522799432277679e-01</leafValues></_>
    <_>
      <internalNodes>
        0 -1 507620 6.6649238578975201e-04</internalNodes>
      <leafValues>
        1.6894266009330750e-01 -4.2590251564979553e-01</leafValues></_>
    <_>
      <internalNodes>
        0 -1 7491 2.9858341440558434e-03</internalNodes>
      <leafValues>
        -1.4397530257701874e-01 4.3666940927505493e-01</leafValues></_>
    <_>
      <internalNodes>
        0 -1 172794 5.4531488567590714e-03</internalNodes>
      <leafValues>
        -1.3663950562477112e-01 4.3553957343101501e-01</leafValues></_></weakClassifiers></stage7>
</opencv_storage>
